{
  "model_name": "NHITS",
  "architecture": {
    "input_shape": [
      null,
      30,
      6
    ],
    "output_shape": [
      null,
      1
    ],
    "total_params": 29825,
    "sequence_length": 30,
    "num_features": 6
  },
  "layers": [
    {
      "index": 4,
      "name": "full_resolution_conv",
      "type": "Conv1D",
      "config": {
        "name": "full_resolution_conv",
        "trainable": true,
        "dtype": {
          "module": "keras",
          "class_name": "DTypePolicy",
          "config": {
            "name": "float32"
          },
          "registered_name": null
        },
        "filters": 32,
        "kernel_size": [
          3
        ],
        "strides": [
          1
        ],
        "padding": "same",
        "data_format": "channels_last",
        "dilation_rate": [
          1
        ],
        "groups": 1,
        "activation": "relu",
        "use_bias": true,
        "kernel_initializer": {
          "module": "keras.initializers",
          "class_name": "GlorotUniform",
          "config": {
            "seed": null
          },
          "registered_name": null
        },
        "bias_initializer": {
          "module": "keras.initializers",
          "class_name": "Zeros",
          "config": {},
          "registered_name": null
        },
        "kernel_regularizer": null,
        "bias_regularizer": null,
        "activity_regularizer": null,
        "kernel_constraint": null,
        "bias_constraint": null
      },
      "weights": [
        [
          0.07658056914806366,
          -0.05602292716503143,
          -0.14806178212165833,
          0.029907597228884697,
          -0.13695482909679413,
          -0.07611306756734848,
          0.05694666504859924,
          0.05242566391825676,
          -0.05319936200976372,
          0.10431855916976929,
          -0.07103927433490753,
          -0.043519165366888046,
          0.12162148207426071,
          0.21314963698387146,
          -0.06047557294368744,
          -0.09284181892871857,
          -0.0028187602292746305,
          -0.10103181004524231,
          -0.16339154541492462,
          0.20869708061218262,
          -0.10105551779270172,
          -0.15201552212238312,
          0.21760304272174835,
          -0.11550892144441605,
          0.06740892678499222,
          0.050810616463422775,
          -0.060500044375658035,
          -0.07956161350011826,
          -0.12827986478805542,
          -0.1837528496980667,
          -0.09230944514274597,
          -0.037459153681993484,
          -0.055229444056749344,
          0.029211001470685005,
          0.1229679211974144,
          -0.10377635806798935,
          0.1383516788482666,
          0.16435416042804718,
          0.10871809720993042,
          0.017527878284454346,
          0.1586807817220688,
          -0.05380864441394806,
          -0.18037497997283936,
          -0.19998249411582947,
          0.01024790108203888,
          -0.1458691656589508,
          0.18000788986682892,
          0.14498268067836761,
          -0.1850050836801529,
          -0.022495463490486145,
          -0.06919974088668823,
          0.06287556886672974,
          -0.20416989922523499,
          -0.17157045006752014,
          -0.18497160077095032,
          0.11278772354125977,
          0.07205770909786224,
          -0.03311878815293312,
          0.22188390791416168,
          0.06128477677702904,
          -0.17076830565929413,
          -0.08401646465063095,
          0.004478971473872662,
          -0.08615227043628693,
          -0.2341454178094864,
          -0.01485322043299675,
          -0.23279114067554474,
          -0.11418034136295319,
          -0.0034725810401141644,
          0.0856194719672203,
          -0.20085225999355316,
          0.01126414630562067,
          0.10412310808897018,
          -0.09415820240974426,
          -0.02866564691066742,
          -0.14555518329143524,
          -0.18322321772575378,
          0.11981306225061417,
          0.018426815047860146,
          -0.1597231924533844,
          0.12143170088529587,
          0.06016293540596962,
          -0.007299220189452171,
          -0.04983298480510712,
          -0.006540184840559959,
          0.011210725642740726,
          0.045747626572847366,
          -0.12097884714603424,
          -0.08425377309322357,
          0.18234072625637054,
          -0.06410729140043259,
          -0.1659974306821823,
          -0.09811758995056152,
          0.06288785487413406,
          -0.13262952864170074,
          0.007053203880786896,
          -0.014605723321437836,
          0.012057630345225334,
          0.029525522142648697,
          -0.010804702527821064,
          -0.22378987073898315,
          -0.04321020469069481,
          0.21208515763282776,
          0.08598414808511734,
          0.10416655987501144,
          -0.15232360363006592,
          -0.06984075903892517,
          0.03157511726021767,
          -0.2112753540277481,
          -0.07848859578371048,
          0.08946623653173447,
          0.12260840833187103,
          -0.04452391341328621,
          -0.0860726460814476,
          0.032175879925489426,
          -0.18868064880371094,
          -0.12773221731185913,
          0.07086893916130066,
          0.22000159323215485,
          -0.019067799672484398,
          0.09643014520406723,
          0.1791870892047882,
          0.09554402530193329,
          -0.21223263442516327,
          -0.09397720545530319,
          -0.053308892995119095,
          0.1626068651676178,
          -0.01326181460171938,
          -0.11518201231956482,
          0.03246529772877693,
          -0.10317932814359665,
          0.1141025498509407,
          0.17042776942253113,
          -0.07365710288286209,
          0.1738068014383316,
          0.23232007026672363,
          -0.09507008641958237,
          -0.008679252117872238,
          0.059532180428504944,
          0.17955240607261658,
          0.034452199935913086,
          0.09001448005437851,
          -0.21926254034042358,
          0.037149086594581604,
          -0.021173963323235512,
          0.007664185017347336,
          0.19541484117507935,
          -0.2103092521429062,
          0.21323750913143158,
          0.13789790868759155,
          0.0807620957493782,
          0.05708233267068863,
          0.19222776591777802,
          0.20669612288475037,
          -0.07342292368412018,
          -0.03294944390654564,
          -0.15424126386642456,
          0.11084622144699097,
          -0.05390236899256706,
          -0.17508190870285034,
          -0.09026513248682022,
          0.09135124832391739,
          -0.08458186686038971,
          -0.04382703825831413,
          0.20906099677085876,
          0.0835641622543335,
          -0.01672304794192314,
          0.03186122700572014,
          -0.20456726849079132,
          -0.010065308772027493,
          0.19512329995632172,
          -0.20950572192668915,
          0.037979606539011,
          0.06820249557495117,
          -0.009254982694983482,
          -0.17303983867168427,
          0.19439350068569183,
          0.06867013871669769,
          0.008783486671745777,
          0.11871061474084854,
          0.14800480008125305,
          0.11679259687662125,
          0.21345020830631256,
          -0.15994897484779358,
          -0.20077376067638397,
          -0.14936329424381256,
          0.07082492113113403,
          0.19575464725494385,
          -0.051561854779720306,
          -0.03147938475012779,
          -0.22628577053546906,
          0.008856664411723614,
          0.017639202997088432,
          0.1897585690021515,
          0.049055665731430054,
          0.15055431425571442,
          0.09796784073114395,
          -0.00832610484212637,
          0.056590378284454346,
          -0.0022514350712299347,
          0.023499442264437675,
          -0.1557043492794037,
          0.14558075368404388,
          0.033151786774396896,
          -0.04192246496677399,
          -0.04773809760808945,
          0.21527116000652313,
          -0.008598312735557556,
          -0.14616820216178894,
          -0.13167770206928253,
          -0.06407774239778519,
          -0.1779457926750183,
          -0.08076973259449005,
          -0.08826704323291779,
          0.12257107347249985,
          -0.125489741563797,
          -0.22335004806518555,
          0.17721931636333466,
          -0.003701674984768033,
          -0.02897549606859684,
          -0.06058206409215927,
          0.08001277595758438,
          -0.06734012067317963,
          -0.07836387306451797,
          -0.1431248039007187,
          -0.07691925764083862,
          0.0416417270898819,
          -0.10111129283905029,
          -0.21411064267158508,
          0.19141188263893127,
          0.051206301897764206,
          0.11643348634243011,
          0.1637599617242813,
          0.030833864584565163,
          0.0184614360332489,
          0.1924402266740799,
          0.1372176706790924,
          0.010601197369396687,
          0.011813623830676079,
          -0.04408225417137146,
          -0.07962042838335037,
          -0.21241647005081177,
          0.08573875576257706,
          0.15124258399009705,
          -0.018228890374302864,
          0.017629707232117653,
          0.011564049869775772,
          -0.17151212692260742,
          -0.02516523189842701,
          -0.15077908337116241,
          0.21950878202915192,
          -0.1079920083284378,
          0.019444335252046585,
          0.17517247796058655,
          0.028207359835505486,
          -0.06744823604822159,
          0.03202178329229355,
          -0.07691310346126556,
          0.1049370989203453,
          0.02487989515066147,
          -0.06677310168743134,
          0.08364523947238922,
          0.12429844588041306,
          0.16726328432559967,
          0.019775884225964546,
          0.1735854297876358,
          -0.19848474860191345,
          -0.18763405084609985,
          -0.20533643662929535,
          -0.03792611137032509,
          0.16769368946552277,
          0.04356919229030609,
          0.15282300114631653,
          -0.12045139074325562,
          0.2102719098329544,
          0.003224933287128806,
          -0.09778041392564774,
          -0.2145916223526001,
          0.016993317753076553,
          0.03586611896753311,
          0.12075802683830261,
          0.02017981931567192,
          -0.03740931302309036,
          0.01574779860675335,
          0.09202364087104797,
          0.11589335650205612,
          -0.18504652380943298,
          0.12199430167675018,
          -0.07892785966396332,
          -0.03139675036072731,
          -0.0749378651380539,
          -0.014192366041243076,
          -0.2230609655380249,
          0.07587085664272308,
          -0.21586978435516357,
          0.17975042760372162,
          -0.004349628929048777,
          -0.007817244157195091,
          -0.1799221932888031,
          -0.05728685483336449,
          -0.0167985912412405,
          -0.14916230738162994,
          0.07903533428907394,
          -0.06790223717689514,
          -0.20424200594425201,
          0.041668377816677094,
          -0.12150329351425171,
          0.17666597664356232,
          0.061831917613744736,
          0.10257984697818756,
          0.04673774167895317,
          0.07143997400999069,
          -0.18648485839366913,
          -0.13706593215465546,
          -0.11402040719985962,
          -0.15365630388259888,
          -0.022341491654515266,
          0.20618240535259247,
          -0.10570230334997177,
          -0.004616038408130407,
          0.20356519520282745,
          -0.01355608832091093,
          0.161687433719635,
          0.020203083753585815,
          0.02530885487794876,
          -0.15247845649719238,
          0.1479702740907669,
          -0.10177311301231384,
          -0.1350974589586258,
          0.09373435378074646,
          -0.09221766889095306,
          -0.009718993678689003,
          -0.11839619278907776,
          0.058476824313402176,
          0.19803354144096375,
          -0.07292221486568451,
          -0.0372370183467865,
          0.0755138024687767,
          -0.20067031681537628,
          -0.003624536795541644,
          -0.1262352019548416,
          -0.18325044214725494,
          0.05050157755613327,
          -0.1625836342573166,
          -0.14356832206249237,
          -0.1543048471212387,
          0.01961524225771427,
          -0.20208296179771423,
          -0.02169863134622574,
          -0.10562244802713394,
          -0.0013845065841451287,
          0.18046967685222626,
          0.10408692061901093,
          -0.0984129086136818,
          -0.07586468011140823,
          0.0897836908698082,
          0.08679348975419998,
          -0.1884106546640396,
          -0.11379086971282959,
          0.1350683718919754,
          -0.07159748673439026,
          -0.14920583367347717,
          -0.14611810445785522,
          0.0002506486780475825,
          0.07474561035633087,
          0.0677185207605362,
          -0.018765000626444817,
          -0.0997421145439148,
          -0.21476677060127258,
          0.1524350345134735,
          0.14735329151153564,
          -0.178282231092453,
          0.18462665379047394,
          0.1844596117734909,
          0.18309848010540009,
          -0.052568040788173676,
          0.21952298283576965,
          0.21259479224681854,
          0.03946242853999138,
          0.011030908674001694,
          -0.1030755415558815,
          -0.15592323243618011,
          -0.07878746837377548,
          0.07570062577724457,
          -0.14829789102077484,
          -0.09406211972236633,
          -0.15023337304592133,
          0.08402062207460403,
          -0.11493964493274689,
          -0.16338178515434265,
          0.11370240896940231,
          -0.06546217203140259,
          0.1316186636686325,
          0.13819484412670135,
          0.10192136466503143,
          0.19960631430149078,
          0.21694576740264893,
          0.10596347600221634,
          0.2079313099384308,
          -0.19147911667823792,
          0.0991373360157013,
          -0.23712268471717834,
          0.2147383987903595,
          -0.21453069150447845,
          -0.10828441381454468,
          0.07506764680147171,
          0.193990558385849,
          -0.07241936028003693,
          0.04180114343762398,
          -0.11496517062187195,
          -0.06057985499501228,
          -0.043763477355241776,
          0.11405036598443985,
          0.19739791750907898,
          0.0629129707813263,
          -0.04454507306218147,
          0.16903141140937805,
          0.10637226700782776,
          -0.13849636912345886,
          0.08824700862169266,
          -0.00038904414395801723,
          -0.03461886942386627,
          -0.2126084566116333,
          -0.07564664632081985,
          0.20047837495803833,
          -0.08103693276643753,
          0.09600035846233368,
          0.10500722378492355,
          0.11621099710464478,
          -0.05868706479668617,
          0.039592988789081573,
          -0.2204272747039795,
          0.06598181277513504,
          0.19570471346378326,
          -0.021855099126696587,
          0.1294936090707779,
          -0.1165396198630333,
          -0.1382773369550705,
          0.07483099400997162,
          -0.0313352607190609,
          0.12655122578144073,
          -0.14873595535755157,
          0.050297971814870834,
          -0.04231295362114906,
          -0.02642330341041088,
          0.16720619797706604,
          -0.09170769900083542,
          0.007082716096192598,
          -0.15843814611434937,
          -0.055391598492860794,
          0.20023410022258759,
          0.04835919290781021,
          -0.04902910813689232,
          0.1800622195005417,
          0.16396509110927582,
          -0.07595925033092499,
          0.22076207399368286,
          0.06697624176740646,
          0.14447303116321564,
          0.18134674429893494,
          -0.19476580619812012,
          0.1851213574409485,
          -0.178279846906662,
          -0.014714136719703674,
          0.16982685029506683,
          0.09297951310873032,
          -0.21660414338111877,
          -0.06283888965845108,
          0.06524105370044708,
          -0.1708667129278183,
          0.09703422337770462,
          -0.14965784549713135,
          0.19864840805530548,
          -0.21550045907497406,
          0.08934702724218369,
          0.15412265062332153,
          0.07611433416604996,
          -0.09030067175626755,
          0.1697075366973877,
          0.05724535882472992,
          -0.08270721882581711,
          0.22913096845149994,
          -0.08994583040475845,
          0.01905401423573494,
          0.07929874211549759,
          0.10850495845079422,
          0.15410350263118744,
          -0.1812489926815033,
          -0.1247478574514389,
          0.15249647200107574,
          -0.17145684361457825,
          -0.07913646101951599,
          -0.09008666127920151,
          0.21342656016349792,
          -0.05509504675865173,
          -0.0023850053548812866,
          -0.046659473329782486,
          0.06010652333498001,
          -0.06371688097715378,
          0.1812966912984848,
          0.18720902502536774,
          -0.17249710857868195,
          0.07144544273614883,
          0.08806134015321732,
          -0.133298859000206,
          0.16391144692897797,
          -0.20220531523227692,
          0.21610815823078156,
          -0.20800472795963287,
          -0.0597882904112339,
          -0.10052885115146637,
          0.030717210844159126,
          -0.034206874668598175,
          0.1155698150396347,
          0.07436730712652206,
          -0.09351804852485657,
          0.14825381338596344,
          -0.0024280885700136423,
          0.21645961701869965,
          -0.1406702697277069,
          0.0037533817812800407,
          -0.1370677500963211,
          -0.21775509417057037,
          0.1419982612133026,
          -0.06913202255964279,
          0.2198784053325653,
          0.15330742299556732,
          0.028725549578666687,
          0.12130274623632431,
          -0.023966282606124878,
          0.16547076404094696,
          -0.1222747266292572,
          0.035487160086631775,
          -0.093920037150383,
          -0.019227899610996246,
          0.06778423488140106,
          -0.04821491241455078,
          -0.1938805878162384,
          0.09459222108125687,
          0.2071322649717331,
          0.19740614295005798,
          0.06008535623550415,
          0.12214700877666473,
          0.010793082416057587,
          -0.07832997292280197,
          0.1781514286994934,
          -0.008157223463058472,
          0.205840602517128,
          0.04368634521961212,
          0.03501049801707268,
          0.03659075126051903,
          -0.007410730700939894,
          0.01937483437359333,
          -0.010419628582894802,
          -0.030802547931671143,
          -0.09193269908428192,
          0.12300904840230942,
          -0.04882011562585831,
          -0.10811043530702591,
          -0.12541234493255615,
          -0.2116599678993225,
          -0.13932903110980988,
          -0.207760751247406,
          -0.16069594025611877,
          -0.036736998707056046,
          0.21198637783527374,
          -0.15937300026416779,
          0.14495663344860077,
          -0.1743965446949005,
          -0.08067740499973297,
          0.06883439421653748,
          0.1411375105381012,
          -0.06781366467475891,
          0.07838461548089981,
          0.012560462579131126,
          0.08935599029064178
        ],
        [
          -0.002564299153164029,
          -0.0036869707982987165,
          -0.0015839356929063797,
          0.02484445832669735,
          -0.0019097923068329692,
          0.0037068838719278574,
          -0.00029923178954049945,
          0.013666152022778988,
          0.003023627446964383,
          0.03640678897500038,
          0.0,
          -8.480584801873192e-05,
          0.005916110705584288,
          0.0040907408110797405,
          0.001423378475010395,
          0.0,
          -0.002722006058320403,
          -0.010403306223452091,
          9.743700502440333e-05,
          0.0001588128216098994,
          -0.007509319111704826,
          -0.010100524872541428,
          -0.00012314729974605143,
          -0.0030892635695636272,
          -0.0011792511213570833,
          -0.009413986466825008,
          0.004535225220024586,
          -0.01566346548497677,
          -0.005296545103192329,
          -0.00013570408918894827,
          -0.004960444290190935,
          0.007534428033977747
        ]
      ],
      "weight_shapes": [
        [
          3,
          6,
          32
        ],
        [
          32
        ]
      ]
    },
    {
      "index": 5,
      "name": "half_resolution_conv",
      "type": "Conv1D",
      "config": {
        "name": "half_resolution_conv",
        "trainable": true,
        "dtype": {
          "module": "keras",
          "class_name": "DTypePolicy",
          "config": {
            "name": "float32"
          },
          "registered_name": null
        },
        "filters": 32,
        "kernel_size": [
          3
        ],
        "strides": [
          1
        ],
        "padding": "same",
        "data_format": "channels_last",
        "dilation_rate": [
          1
        ],
        "groups": 1,
        "activation": "relu",
        "use_bias": true,
        "kernel_initializer": {
          "module": "keras.initializers",
          "class_name": "GlorotUniform",
          "config": {
            "seed": null
          },
          "registered_name": null
        },
        "bias_initializer": {
          "module": "keras.initializers",
          "class_name": "Zeros",
          "config": {},
          "registered_name": null
        },
        "kernel_regularizer": null,
        "bias_regularizer": null,
        "activity_regularizer": null,
        "kernel_constraint": null,
        "bias_constraint": null
      },
      "weights": [
        [
          0.16280505061149597,
          -0.17969684302806854,
          0.1405961960554123,
          0.14060281217098236,
          0.18300695717334747,
          -0.06563208997249603,
          -0.1060635969042778,
          0.07153373956680298,
          -0.1941664218902588,
          0.040853001177310944,
          0.010794984176754951,
          -0.07833573967218399,
          0.13881345093250275,
          -0.11118602752685547,
          0.09815323352813721,
          0.21888025104999542,
          -0.21943534910678864,
          -0.13094329833984375,
          0.06712494790554047,
          0.17908653616905212,
          0.09610626101493835,
          -0.11465749144554138,
          -0.0321352444589138,
          0.07193966209888458,
          0.02691512368619442,
          0.22776181995868683,
          -0.13812051713466644,
          -0.07385169714689255,
          0.016611674800515175,
          -0.10581988096237183,
          0.044466521590948105,
          0.1265152245759964,
          0.030151665210723877,
          -0.09309364855289459,
          0.1639026254415512,
          0.14099915325641632,
          -0.11134418100118637,
          -0.000784435193054378,
          -0.005100218579173088,
          -0.02555066905915737,
          0.06851331144571304,
          0.16835983097553253,
          0.003059315262362361,
          -0.21963289380073547,
          0.00014532085333485156,
          -0.21457800269126892,
          -0.1011086106300354,
          0.012236501090228558,
          0.05207648500800133,
          0.21427349746227264,
          -0.017894331365823746,
          -0.04481498897075653,
          0.09411032497882843,
          0.20873074233531952,
          -0.21616367995738983,
          0.052106019109487534,
          0.192527636885643,
          0.04326632618904114,
          0.14582058787345886,
          -0.21202225983142853,
          0.13059839606285095,
          -0.08812651038169861,
          0.20363850891590118,
          0.24147282540798187,
          0.2037714272737503,
          0.1328594833612442,
          0.10176639258861542,
          -0.22961995005607605,
          0.1870606243610382,
          -0.03622126206755638,
          0.09000896662473679,
          -0.14493092894554138,
          -0.23134973645210266,
          0.06280433386564255,
          0.0767534151673317,
          0.21778422594070435,
          -0.1165158748626709,
          -0.06080363318324089,
          -0.060239776968955994,
          0.050932109355926514,
          0.16407153010368347,
          0.11359558999538422,
          0.18887650966644287,
          -0.14602269232273102,
          0.21924470365047455,
          0.057022370398044586,
          0.09048629552125931,
          -0.0648820623755455,
          -0.06203637644648552,
          -0.08005642145872116,
          -0.20065011084079742,
          0.20303568243980408,
          0.16446758806705475,
          -0.241511270403862,
          0.154849112033844,
          -0.19897477328777313,
          0.11214776337146759,
          -0.07142084836959839,
          0.20206332206726074,
          -0.04142510145902634,
          0.0867478996515274,
          -0.019149530678987503,
          0.07961247861385345,
          0.09431511908769608,
          0.10202614217996597,
          0.013357791118323803,
          -0.027018515393137932,
          0.08788258582353592,
          -0.23697282373905182,
          0.14454339444637299,
          -0.16508224606513977,
          0.12520235776901245,
          0.18032345175743103,
          0.029830459505319595,
          0.025109171867370605,
          -0.18795692920684814,
          -0.1573886275291443,
          0.06463063508272171,
          0.1743663251399994,
          0.012894260697066784,
          -0.06879961490631104,
          -0.12207286804914474,
          0.05079135671257973,
          -0.18618623912334442,
          0.03845609351992607,
          0.1744602769613266,
          0.12141145765781403,
          -0.004632121417671442,
          0.1212281659245491,
          -0.1666298508644104,
          0.11869936436414719,
          -0.035733360797166824,
          -0.10766487568616867,
          0.21883295476436615,
          0.18205498158931732,
          -0.13717597723007202,
          0.037403739988803864,
          -0.04810358211398125,
          0.1635262370109558,
          -0.12604425847530365,
          -0.03313330188393593,
          0.19872428476810455,
          -0.19034788012504578,
          0.007143176160752773,
          0.0823671817779541,
          -0.024175936356186867,
          0.04595839977264404,
          0.18990902602672577,
          -0.1636561006307602,
          0.16940471529960632,
          -0.10598934441804886,
          0.17954112589359283,
          -0.12766429781913757,
          0.06066302955150604,
          -0.1852789968252182,
          -0.1416957527399063,
          0.1764693558216095,
          0.2154114544391632,
          -0.1055595725774765,
          -0.10589642077684402,
          -0.13591368496418,
          0.045445576310157776,
          0.20200300216674805,
          0.009230178780853748,
          -0.17930591106414795,
          -0.1209082305431366,
          0.010090963914990425,
          0.06106054410338402,
          0.07898224890232086,
          -0.001975205959752202,
          0.06359130144119263,
          0.20035557448863983,
          0.1924353390932083,
          0.14411430060863495,
          -0.1517639011144638,
          -0.18652425706386566,
          0.05088074132800102,
          0.1419018656015396,
          0.012636384926736355,
          -0.18529663980007172,
          0.1031051054596901,
          -0.027026062831282616,
          0.13579629361629486,
          0.07227052748203278,
          -0.19935479760169983,
          -0.02015393041074276,
          0.06384918838739395,
          0.11969895660877228,
          0.21038322150707245,
          -0.10560550540685654,
          0.1375158131122589,
          0.14855150878429413,
          -0.09441109001636505,
          0.029957756400108337,
          0.033463187515735626,
          0.18306520581245422,
          -0.20118962228298187,
          -0.09246092289686203,
          -0.0483369380235672,
          0.06796292960643768,
          -0.02125995233654976,
          -0.010101287625730038,
          -0.06266248971223831,
          -0.023186804726719856,
          0.14239269495010376,
          -0.1001916378736496,
          -0.016162095591425896,
          0.1547706425189972,
          -0.1888943761587143,
          0.20508158206939697,
          -0.2191888391971588,
          0.10834843665361404,
          -0.02454514428973198,
          0.09166906028985977,
          -0.20169244706630707,
          -0.04724939912557602,
          0.21356479823589325,
          0.011907928623259068,
          0.2193118929862976,
          0.16461627185344696,
          0.11842621862888336,
          0.08679717034101486,
          0.23140159249305725,
          0.030480708926916122,
          0.19300305843353271,
          0.06555552780628204,
          0.19409702718257904,
          0.14975839853286743,
          -0.005312949884682894,
          0.11464764922857285,
          -0.1361764520406723,
          0.21417054533958435,
          -0.18916535377502441,
          0.21356303989887238,
          0.14779235422611237,
          0.153476282954216,
          -0.014617258682847023,
          -0.1992965042591095,
          -0.07955753058195114,
          -0.009142426773905754,
          0.0016450240509584546,
          0.05760026350617409,
          0.07541380077600479,
          -0.09737081080675125,
          -0.12855666875839233,
          -0.062008071690797806,
          -0.11672298610210419,
          -0.11434993147850037,
          -0.10050536692142487,
          -0.219821959733963,
          0.07333585619926453,
          -0.2203802615404129,
          0.0025559519417583942,
          -0.2319752424955368,
          0.0552118644118309,
          0.06914074718952179,
          0.04805293306708336,
          -0.04224373400211334,
          -0.2094333916902542,
          0.11994671821594238,
          -0.12797017395496368,
          0.19754520058631897,
          0.030007589608430862,
          0.06884865462779999,
          -0.08045782148838043,
          -0.017442969605326653,
          -0.023546721786260605,
          0.12040693312883377,
          0.02329992689192295,
          0.11681797355413437,
          0.1346047967672348,
          0.08247779309749603,
          -0.026051826775074005,
          0.2079165130853653,
          -0.07110189646482468,
          0.02666974999010563,
          0.07463524490594864,
          -0.03715822473168373,
          0.0336630716919899,
          0.18750981986522675,
          0.02478407695889473,
          -0.01758296974003315,
          -0.21855837106704712,
          0.08869720250368118,
          0.09185963124036789,
          -0.0737525150179863,
          0.12247756868600845,
          -0.07255534827709198,
          0.1264113336801529,
          -0.1642657220363617,
          -0.015788929536938667,
          -0.1354152411222458,
          0.07250374555587769,
          0.21983738243579865,
          -0.08568290621042252,
          0.04354036599397659,
          0.008257267065346241,
          -0.010943068191409111,
          -0.04931993409991264,
          0.13453325629234314,
          0.14798155426979065,
          0.11350962519645691,
          0.2123078852891922,
          0.15741172432899475,
          -0.21522706747055054,
          -0.05397394672036171,
          0.037169549614191055,
          0.029896680265665054,
          -0.05281559005379677,
          0.1607370227575302,
          0.07077870517969131,
          0.1969032734632492,
          0.22587518393993378,
          0.06953828036785126,
          -0.1354791224002838,
          -0.14375630021095276,
          0.20473384857177734,
          0.003450204851105809,
          -0.19185765087604523,
          -0.16664542257785797,
          0.08203620463609695,
          -0.214443638920784,
          0.011856249533593655,
          0.15690717101097107,
          -0.10892894119024277,
          -0.021232647821307182,
          -0.06895032525062561,
          -0.07602450251579285,
          0.0643097311258316,
          -0.15007995069026947,
          -0.12180569767951965,
          -0.16144032776355743,
          0.13197678327560425,
          0.15723395347595215,
          0.1953365057706833,
          0.18962638080120087,
          -0.15428011119365692,
          0.021397586911916733,
          0.15048153698444366,
          -0.0038782490883022547,
          0.1431635320186615,
          0.10775984823703766,
          0.04452270269393921,
          0.06038180738687515,
          0.02396869845688343,
          0.08397351950407028,
          0.10140221565961838,
          0.14300183951854706,
          0.11554054170846939,
          -0.1365453600883484,
          0.21838253736495972,
          -0.08548127114772797,
          -0.02138647809624672,
          -0.043636754155159,
          -0.21235327422618866,
          -0.23134243488311768,
          -0.09302467107772827,
          -0.16693180799484253,
          0.08103641122579575,
          0.061527542769908905,
          0.13938885927200317,
          0.19473771750926971,
          -0.19271747767925262,
          -0.05781414732336998,
          0.1432274580001831,
          -0.11848436295986176,
          -0.05117352679371834,
          0.182877779006958,
          0.1974209100008011,
          -0.1804286688566208,
          -0.09701415151357651,
          0.21479398012161255,
          -0.18873009085655212,
          0.08408240973949432,
          -0.06228595972061157,
          -0.16950678825378418,
          0.2086315155029297,
          -0.20068472623825073,
          0.08746759593486786,
          0.05175195261836052,
          -0.15382158756256104,
          0.05607645586133003,
          -0.01565382070839405,
          0.15041784942150116,
          -0.01271949615329504,
          -0.2044670134782791,
          -0.06399516016244888,
          0.050132568925619125,
          0.20028801262378693,
          0.19222310185432434,
          0.001071251928806305,
          0.060102786868810654,
          0.008387320674955845,
          -0.05863618478178978,
          0.17714472115039825,
          -0.06826941668987274,
          0.20687410235404968,
          -0.1902751624584198,
          -0.23124641180038452,
          0.1261138916015625,
          -0.13489185273647308,
          -0.17027783393859863,
          -0.06713103502988815,
          -0.017204515635967255,
          -0.0635417178273201,
          -0.1807767152786255,
          -0.02389478124678135,
          -0.19489076733589172,
          -0.025091638788580894,
          0.040579624474048615,
          -0.03417561948299408,
          0.09016304463148117,
          0.13615114986896515,
          0.16313835978507996,
          0.1631893813610077,
          -0.14269040524959564,
          -0.1283831000328064,
          0.08976583182811737,
          -0.21901874244213104,
          -0.05027657374739647,
          0.017946533858776093,
          0.0995992124080658,
          -0.034710224717855453,
          -0.16252952814102173,
          0.1377517580986023,
          -0.046801209449768066,
          0.025410279631614685,
          0.17424915730953217,
          -0.0779019296169281,
          -0.09407714009284973,
          -0.19443964958190918,
          -0.08565421402454376,
          0.20979827642440796,
          -0.025072671473026276,
          -0.14019018411636353,
          0.10333025455474854,
          0.1657111644744873,
          -0.06623911112546921,
          0.17112970352172852,
          0.135578915476799,
          -0.16493475437164307,
          -0.026067936792969704,
          -0.22053232789039612,
          0.11786912381649017,
          0.16259914636611938,
          0.1350351721048355,
          -0.022614242509007454,
          0.20411941409111023,
          -0.11018568277359009,
          -0.18650436401367188,
          -0.09655658155679703,
          0.09366720169782639,
          -0.0211402028799057,
          0.14832726120948792,
          -0.14960819482803345,
          0.05412409082055092,
          -0.10687751322984695,
          0.03353811800479889,
          -0.061101071536540985,
          -0.22494906187057495,
          0.07338963449001312,
          -0.12313702702522278,
          -0.05985184386372566,
          -0.2225971221923828,
          -0.05086485669016838,
          0.22865277528762817,
          -0.1237683892250061,
          -0.13458338379859924,
          0.05218328535556793,
          0.21650899946689606,
          -0.0037055101711302996,
          0.15312056243419647,
          -0.17038343846797943,
          0.05459737777709961,
          -0.0231865756213665,
          0.0450342632830143,
          -0.1163046658039093,
          0.13656161725521088,
          0.12393032759428024,
          0.17927870154380798,
          0.11210215836763382,
          -0.10335534811019897,
          -0.06355895847082138,
          -0.19787636399269104,
          0.11430754512548447,
          0.14986686408519745,
          0.19523575901985168,
          -0.016073305159807205,
          0.06977427750825882,
          -0.1408400535583496,
          -0.17629168927669525,
          0.042634814977645874,
          -0.22633333504199982,
          -0.14430458843708038,
          -0.09334246814250946,
          0.09989558905363083,
          -0.054693881422281265,
          0.10500914603471756,
          0.12454283237457275,
          0.11851067841053009,
          0.11429204791784286,
          0.10795407742261887,
          -0.07150669395923615,
          0.07561935484409332,
          0.0897790715098381,
          -0.18226167559623718,
          0.20641852915287018,
          0.1352439522743225,
          0.03433287888765335,
          0.17343638837337494,
          -0.11688362807035446,
          0.05789240077137947,
          0.1356269121170044,
          0.049080297350883484,
          -0.042971089482307434,
          -0.2033068835735321,
          -0.17085643112659454,
          -0.030743299052119255,
          -0.1296643167734146,
          0.050773777067661285,
          0.05547559633851051,
          0.1272207498550415,
          -0.13673759996891022,
          0.20125174522399902,
          -0.199575275182724,
          -0.04621732234954834,
          -0.20398642122745514,
          -0.20992058515548706,
          0.20230305194854736,
          -0.0601934976875782,
          -0.1234428882598877,
          -0.21053491532802582,
          0.09799966216087341,
          -0.14447028934955597,
          0.16327503323554993,
          0.143063485622406,
          0.09271489828824997,
          -0.1819329708814621,
          0.14182884991168976,
          -0.06523151695728302,
          0.121930792927742,
          0.21575425565242767,
          0.17883172631263733,
          -0.06299703568220139,
          -0.21569746732711792,
          0.09327064454555511,
          -0.19520701467990875,
          -0.01540183462202549,
          -0.09607287496328354,
          -0.05885815992951393,
          0.057361897081136703,
          0.1217290610074997,
          -0.1623552441596985,
          0.09763545542955399,
          0.07836391031742096,
          -0.014835250563919544,
          0.19175182282924652,
          -0.17713810503482819,
          0.056793708354234695,
          -0.23079004883766174,
          0.22021499276161194,
          -0.09500069916248322,
          0.1861424297094345,
          -0.02156507596373558,
          -0.07253163307905197,
          0.14000368118286133,
          -0.22625449299812317,
          0.10911412537097931,
          -0.09517046064138412,
          0.004278856795281172,
          -0.014937599189579487,
          -0.025666240602731705,
          -0.1493683159351349,
          -0.015186557546257973,
          0.19083653390407562,
          0.16983267664909363
        ],
        [
          0.008698170073330402,
          0.0,
          -0.006571989972144365,
          -0.00511103356257081,
          -0.004433535970747471,
          -0.0013379015726968646,
          -0.0005760149215348065,
          -0.005943188443779945,
          -0.010134443640708923,
          -0.005018016789108515,
          -0.004710259381681681,
          0.011858918704092503,
          -0.018422286957502365,
          0.003602073760703206,
          -0.003799064550548792,
          -0.008492197841405869,
          0.01566495932638645,
          0.015698639675974846,
          -0.0060433573089540005,
          -0.005439381115138531,
          -0.0033006337471306324,
          -0.0013950859429314733,
          -0.0041224416345357895,
          -0.00022354518296197057,
          0.011069409549236298,
          0.004276970401406288,
          -0.007242294028401375,
          0.008085021749138832,
          2.3035610865917988e-05,
          0.014158804900944233,
          -2.3744337340758648e-06,
          0.013455010950565338
        ]
      ],
      "weight_shapes": [
        [
          3,
          6,
          32
        ],
        [
          32
        ]
      ]
    },
    {
      "index": 6,
      "name": "quarter_resolution_conv",
      "type": "Conv1D",
      "config": {
        "name": "quarter_resolution_conv",
        "trainable": true,
        "dtype": {
          "module": "keras",
          "class_name": "DTypePolicy",
          "config": {
            "name": "float32"
          },
          "registered_name": null
        },
        "filters": 32,
        "kernel_size": [
          3
        ],
        "strides": [
          1
        ],
        "padding": "same",
        "data_format": "channels_last",
        "dilation_rate": [
          1
        ],
        "groups": 1,
        "activation": "relu",
        "use_bias": true,
        "kernel_initializer": {
          "module": "keras.initializers",
          "class_name": "GlorotUniform",
          "config": {
            "seed": null
          },
          "registered_name": null
        },
        "bias_initializer": {
          "module": "keras.initializers",
          "class_name": "Zeros",
          "config": {},
          "registered_name": null
        },
        "kernel_regularizer": null,
        "bias_regularizer": null,
        "activity_regularizer": null,
        "kernel_constraint": null,
        "bias_constraint": null
      },
      "weights": [
        [
          0.11656128615140915,
          0.08888818323612213,
          0.16383983194828033,
          0.07061439007520676,
          -0.02164747379720211,
          -0.10892191529273987,
          -0.22526982426643372,
          0.01442037709057331,
          0.16066443920135498,
          -0.16953258216381073,
          0.1123647540807724,
          0.05910418927669525,
          0.16531825065612793,
          0.024112118408083916,
          0.10312778502702713,
          0.171485036611557,
          0.15166693925857544,
          0.17596416175365448,
          0.19347931444644928,
          -0.01144810114055872,
          -0.1731107383966446,
          0.010720854625105858,
          0.11510740220546722,
          0.15966176986694336,
          0.11354782432317734,
          0.05049971863627434,
          -0.1688614934682846,
          0.18701089918613434,
          -0.11368284374475479,
          -0.1711515337228775,
          -0.009416012093424797,
          0.20754645764827728,
          0.03150460869073868,
          0.044886037707328796,
          0.09343007951974869,
          -0.10993168503046036,
          0.1423865556716919,
          -0.1339631825685501,
          -0.10137540847063065,
          0.18215711414813995,
          0.1370219588279724,
          -0.004275721963495016,
          -0.13767610490322113,
          -0.004537539090961218,
          -0.08676754683256149,
          0.027217227965593338,
          -0.009315282106399536,
          -0.22216929495334625,
          0.11698151379823685,
          0.05965587496757507,
          -0.11741642653942108,
          -0.03183099627494812,
          -0.00547075318172574,
          -0.1520288735628128,
          0.028064677491784096,
          0.026173001155257225,
          -0.14896589517593384,
          0.0008142768056131899,
          0.09409762918949127,
          -0.1726212203502655,
          -0.0755230039358139,
          -0.1775149703025818,
          -0.10619784146547318,
          0.05337200686335564,
          -0.07272568345069885,
          -0.01873607188463211,
          0.08695916831493378,
          0.17523621022701263,
          -0.20931093394756317,
          -0.11606396734714508,
          0.11356175690889359,
          0.028235414996743202,
          0.1991870403289795,
          -0.12289662659168243,
          0.007714534644037485,
          0.18953274190425873,
          0.15970633924007416,
          -0.12452597171068192,
          0.06556348502635956,
          -0.1415131688117981,
          -0.11503484845161438,
          0.05653911083936691,
          0.13394683599472046,
          0.05471202731132507,
          -0.20090320706367493,
          0.026828601956367493,
          -0.20330478250980377,
          -0.034197963774204254,
          -0.18923066556453705,
          0.05836159363389015,
          -0.17904876172542572,
          0.06776294857263565,
          0.1788177341222763,
          0.21277494728565216,
          0.17864033579826355,
          -0.15533927083015442,
          0.18478836119174957,
          0.15773461759090424,
          0.15767301619052887,
          0.1744604855775833,
          -0.18832512199878693,
          -0.14508360624313354,
          0.17412859201431274,
          -0.1305786371231079,
          0.21619261801242828,
          0.18397307395935059,
          -0.019293997436761856,
          -0.03902073949575424,
          -0.24255625903606415,
          0.18058525025844574,
          0.028909053653478622,
          -0.150973379611969,
          0.03844621777534485,
          -0.09575572609901428,
          -0.07801853120326996,
          -0.1329694241285324,
          -0.13523048162460327,
          0.20362825691699982,
          0.03696628659963608,
          0.19923223555088043,
          -0.045203786343336105,
          0.07353794574737549,
          -0.023968800902366638,
          -0.1213916689157486,
          0.2063157707452774,
          -0.18213944137096405,
          0.12025383859872818,
          0.0541483610868454,
          0.22329317033290863,
          -0.1785193532705307,
          -0.124139703810215,
          0.06781325489282608,
          -0.2463168352842331,
          0.12905511260032654,
          -0.22547480463981628,
          0.016262387856841087,
          -0.18015031516551971,
          -0.20419126749038696,
          0.12223538011312485,
          -0.009603406302630901,
          0.21192026138305664,
          0.11459959298372269,
          -0.1365083009004593,
          0.0452188104391098,
          -0.027478918433189392,
          -0.16722603142261505,
          0.20666654407978058,
          0.0883011445403099,
          -0.10795515030622482,
          0.11592911183834076,
          -0.1917262226343155,
          -0.22237135469913483,
          0.10786981880664825,
          0.07310563325881958,
          -0.16996470093727112,
          -0.11001497507095337,
          0.059125855565071106,
          -0.04090595245361328,
          -0.23299230635166168,
          0.009529816918075085,
          0.02384737692773342,
          -0.09569427371025085,
          0.21791891753673553,
          -0.22358670830726624,
          0.07216116786003113,
          -0.15364371240139008,
          -0.03596360981464386,
          0.06128878518939018,
          0.1314709633588791,
          0.09628324955701828,
          -0.12361082434654236,
          0.05380246043205261,
          -0.08134985715150833,
          -0.06657503545284271,
          -0.027838563546538353,
          0.16531044244766235,
          0.0072745587676763535,
          0.2231685221195221,
          0.08769183605909348,
          0.1372479945421219,
          0.05568163841962814,
          -0.20084835588932037,
          -0.1929003745317459,
          -0.03227218613028526,
          0.007246806751936674,
          -0.1733749359846115,
          0.021860091015696526,
          -0.19607609510421753,
          -0.1588687300682068,
          0.22643710672855377,
          0.09595488011837006,
          -0.0604703426361084,
          -0.19966770708560944,
          -0.20127615332603455,
          -0.1585552841424942,
          0.020369701087474823,
          -0.04015235975384712,
          -0.21222825348377228,
          0.06738363206386566,
          0.052464574575424194,
          0.11779893934726715,
          0.18353012204170227,
          -0.22628727555274963,
          -0.08677510917186737,
          0.13788926601409912,
          0.018190370872616768,
          -0.029033197090029716,
          0.22169680893421173,
          0.06951889395713806,
          -0.07115267217159271,
          -0.019130036234855652,
          -0.13171161711215973,
          -0.10048246383666992,
          0.11123165488243103,
          0.012405109591782093,
          -0.10263770073652267,
          -0.20574790239334106,
          0.006334980949759483,
          0.14647068083286285,
          0.06695131212472916,
          0.20517785847187042,
          -0.06584356725215912,
          -0.19209982454776764,
          -0.2115921527147293,
          0.06117919087409973,
          -0.2146155834197998,
          -0.15477316081523895,
          0.1077943667769432,
          0.08083431422710419,
          -0.04793892055749893,
          0.020069226622581482,
          0.01394755020737648,
          -0.14529576897621155,
          -0.12294352799654007,
          -0.12661029398441315,
          -0.04828733205795288,
          0.06387065351009369,
          -0.025544799864292145,
          0.22179266810417175,
          -0.05180191621184349,
          -0.12930217385292053,
          0.20183025300502777,
          0.14436985552310944,
          -0.10469087958335876,
          0.12640289962291718,
          -0.11004577577114105,
          0.21449057757854462,
          -0.20782512426376343,
          0.16171583533287048,
          0.04012725502252579,
          0.0908772423863411,
          -0.09562979638576508,
          0.0029022693634033203,
          0.14647895097732544,
          -0.02673431485891342,
          0.15886448323726654,
          0.1707792431116104,
          -0.041204579174518585,
          0.08708451688289642,
          -0.15614812076091766,
          -0.01434766873717308,
          -0.21357277035713196,
          -0.1332927793264389,
          0.19194070994853973,
          -0.05665842816233635,
          -0.04133637249469757,
          0.021145375445485115,
          -0.14498716592788696,
          0.00897720642387867,
          0.05497727543115616,
          0.037827782332897186,
          -0.15246650576591492,
          0.04717962071299553,
          -0.22510357201099396,
          0.18380366265773773,
          0.2046080082654953,
          0.03088897466659546,
          -0.04587830603122711,
          0.22645463049411774,
          0.024501720443367958,
          0.15908855199813843,
          -0.028919437900185585,
          0.00025156419724226,
          0.08082331717014313,
          -0.09167414903640747,
          -0.20829059183597565,
          -0.02705085650086403,
          0.01138700358569622,
          -0.07259798794984818,
          0.08070381730794907,
          0.18249085545539856,
          0.09206941723823547,
          0.14547963440418243,
          0.10195684432983398,
          -0.0718216821551323,
          -0.2194616049528122,
          -0.21926800906658173,
          0.049407124519348145,
          0.09905820339918137,
          -0.009341767989099026,
          -0.04829253628849983,
          0.0452861562371254,
          -0.11882323026657104,
          0.09104008227586746,
          -0.08090013265609741,
          0.10470124334096909,
          -0.17781081795692444,
          0.1547699123620987,
          0.07755088061094284,
          0.1352696567773819,
          0.023615637794137,
          -0.22526802122592926,
          0.01536268275231123,
          0.09752259403467178,
          -0.09513741731643677,
          0.18244220316410065,
          -0.09476014971733093,
          -0.05496370419859886,
          -0.22960714995861053,
          0.09028153121471405,
          0.020885802805423737,
          0.09570696204900742,
          0.07288703322410583,
          0.07888516038656235,
          0.10638248920440674,
          -0.1215047836303711,
          0.17668622732162476,
          -0.1990039199590683,
          -0.1381273716688156,
          0.023166080936789513,
          0.16181044280529022,
          -0.02126159705221653,
          0.03490298241376877,
          -0.030931681394577026,
          -0.06902073323726654,
          -0.1703711599111557,
          -0.21170397102832794,
          -0.03269189968705177,
          -0.0550696887075901,
          0.15925437211990356,
          -0.05342359095811844,
          -0.06687305867671967,
          0.004200676456093788,
          -0.1386878788471222,
          0.03588172420859337,
          -0.13702310621738434,
          0.08822005987167358,
          0.20103348791599274,
          -0.201669380068779,
          0.033179134130477905,
          -0.22883892059326172,
          -0.07987991720438004,
          -0.23757454752922058,
          -0.23153533041477203,
          0.15316246449947357,
          -0.08325549960136414,
          -0.11989987641572952,
          -0.025848496705293655,
          0.18494772911071777,
          0.01873455010354519,
          0.12353336066007614,
          -0.0681399330496788,
          0.04043140634894371,
          -0.1613253802061081,
          -0.11730123311281204,
          0.20126523077487946,
          0.20436258614063263,
          -0.05977872014045715,
          0.16454821825027466,
          0.10507818311452866,
          0.003668607445433736,
          -0.14762382209300995,
          -0.10005209594964981,
          0.010110397823154926,
          0.06926227360963821,
          0.11155573278665543,
          -0.05581962689757347,
          0.05234956368803978,
          -0.1813468635082245,
          -0.18307135999202728,
          -0.1231236532330513,
          -0.053120989352464676,
          0.18240627646446228,
          0.04252268746495247,
          -0.23895707726478577,
          -0.16478115320205688,
          0.1785837560892105,
          0.04567010700702667,
          -0.18478646874427795,
          0.21813112497329712,
          -0.06828095763921738,
          0.0396999716758728,
          -0.1432323157787323,
          0.05065329372882843,
          0.0875663235783577,
          0.17580287158489227,
          -0.08755512535572052,
          -0.22983336448669434,
          -0.0447530522942543,
          0.18971505761146545,
          0.045602213591337204,
          -0.1455548256635666,
          -0.08201605081558228,
          -0.018684234470129013,
          0.16546298563480377,
          0.1454317271709442,
          0.03919205442070961,
          0.19027511775493622,
          -0.09413152188062668,
          -0.1411382555961609,
          -0.004788333550095558,
          0.1402108371257782,
          0.045398637652397156,
          -0.04726024717092514,
          -0.09936733543872833,
          -0.20262248814105988,
          0.18882142007350922,
          -0.007811454124748707,
          0.0170024111866951,
          -0.016797199845314026,
          0.18934962153434753,
          0.18925128877162933,
          0.01565457507967949,
          0.1439746469259262,
          0.10576365888118744,
          -0.03472547233104706,
          -0.0910932719707489,
          -0.24621175229549408,
          -0.13369062542915344,
          -0.011410865001380444,
          -0.11544480919837952,
          -0.1246897280216217,
          -0.25043290853500366,
          0.0882382020354271,
          0.10481883585453033,
          0.11658985912799835,
          0.06301984935998917,
          -0.03200726583600044,
          0.02243274636566639,
          -0.13188964128494263,
          0.23002178966999054,
          -0.23913541436195374,
          -0.0278030913323164,
          0.20319890975952148,
          0.21675889194011688,
          -0.09080719947814941,
          -0.15849044919013977,
          0.018032092601060867,
          0.08964233845472336,
          0.16961592435836792,
          0.02203095145523548,
          0.1382380872964859,
          0.0661308765411377,
          0.0352381132543087,
          -0.022531842812895775,
          -0.2020154893398285,
          0.09118124842643738,
          0.009326651692390442,
          0.10829605162143707,
          -0.06930964440107346,
          -0.047267038375139236,
          0.06734307110309601,
          -0.1083458736538887,
          0.1781112253665924,
          -0.19406040012836456,
          -0.21858292818069458,
          0.09289691597223282,
          0.18400296568870544,
          -0.11941169202327728,
          -0.03927716985344887,
          -0.22479760646820068,
          0.10717035084962845,
          -0.08184643089771271,
          0.03689232096076012,
          0.13192328810691833,
          -0.23715001344680786,
          -0.21818873286247253,
          0.031263258308172226,
          -0.22463203966617584,
          0.06830223649740219,
          0.11530978232622147,
          0.1499790996313095,
          0.16543762385845184,
          0.016549132764339447,
          -0.11666268110275269,
          0.15530286729335785,
          0.061629991978406906,
          -0.03831300511956215,
          -0.005166272167116404,
          -0.10981385409832001,
          -0.13975711166858673,
          0.02193397469818592,
          -0.05722888559103012,
          -0.11662769317626953,
          -0.01078114565461874,
          0.13976557552814484,
          -0.06940195709466934,
          0.18041963875293732,
          -0.035766005516052246,
          0.21176253259181976,
          0.06396332383155823,
          0.10764560103416443,
          0.11505082994699478,
          0.059285301715135574,
          0.11049894988536835,
          0.038470976054668427,
          -0.15472061932086945,
          -0.14516587555408478,
          0.03507934510707855,
          0.07697682827711105,
          0.1973026543855667,
          0.08058830350637436,
          -0.004114170093089342,
          0.11373800784349442,
          -0.05274061858654022,
          -0.14249515533447266,
          -0.005954704247415066,
          -0.14621393382549286,
          -0.07803798466920853,
          -0.16464556753635406,
          0.20521284639835358,
          -0.2230074256658554,
          0.05588217079639435,
          -0.08442029356956482,
          -0.017765773460268974,
          0.17817896604537964,
          0.15923984348773956,
          -0.11329427361488342,
          0.10846679657697678,
          0.1452372670173645,
          -0.19601567089557648,
          -0.1896558701992035,
          0.01422088872641325,
          -0.1996537297964096,
          -0.143265038728714,
          -0.03419947996735573,
          0.2087385654449463,
          -0.06294985860586166,
          0.15980973839759827,
          -0.07394186407327652,
          -0.1045532077550888,
          -0.05926349386572838,
          -0.15780875086784363,
          -0.0014720441540703177,
          0.0079561248421669,
          -0.1707930862903595,
          0.025331610813736916,
          -0.05261644348502159,
          0.05102893337607384,
          -0.19792017340660095,
          -0.0465315617620945,
          -0.16638128459453583,
          0.20772001147270203,
          -0.016531065106391907,
          -0.1972341686487198,
          -0.23656101524829865,
          -0.10395428538322449,
          -0.09529239684343338,
          -0.12446869909763336,
          0.12810739874839783,
          -0.11827841401100159,
          0.013078423216938972,
          -0.034060169011354446,
          -0.032209742814302444,
          -0.08595164120197296,
          -0.19207051396369934,
          -0.22135692834854126,
          -0.12970195710659027,
          0.053292546421289444,
          0.10603544861078262,
          0.17240555584430695,
          0.1460637003183365,
          -0.1295219361782074,
          0.093077152967453,
          0.10895954072475433,
          -0.21761083602905273
        ],
        [
          0.02816985547542572,
          -0.014284145087003708,
          0.0037269985768944025,
          0.002896253252401948,
          -0.0020184223540127277,
          -0.009158824570477009,
          -0.008577981032431126,
          -0.005974672269076109,
          0.0064043570309877396,
          -0.005757415201514959,
          -0.007168956566601992,
          0.004741791635751724,
          0.011350056156516075,
          -0.04421836510300636,
          -0.007290152367204428,
          0.0072469208389520645,
          0.007175420876592398,
          0.00026513758348301053,
          -0.0036882758140563965,
          -0.00368830980733037,
          0.008643998764455318,
          -0.013616710901260376,
          -0.0019565136171877384,
          -0.007558598183095455,
          0.010352397337555885,
          0.0033030249178409576,
          0.0026706093922257423,
          -0.002321661449968815,
          0.0,
          -0.014671102166175842,
          -0.009339767508208752,
          0.006519967690110207
        ]
      ],
      "weight_shapes": [
        [
          3,
          6,
          32
        ],
        [
          32
        ]
      ]
    },
    {
      "index": 7,
      "name": "eighth_resolution_conv",
      "type": "Conv1D",
      "config": {
        "name": "eighth_resolution_conv",
        "trainable": true,
        "dtype": {
          "module": "keras",
          "class_name": "DTypePolicy",
          "config": {
            "name": "float32"
          },
          "registered_name": null
        },
        "filters": 32,
        "kernel_size": [
          3
        ],
        "strides": [
          1
        ],
        "padding": "same",
        "data_format": "channels_last",
        "dilation_rate": [
          1
        ],
        "groups": 1,
        "activation": "relu",
        "use_bias": true,
        "kernel_initializer": {
          "module": "keras.initializers",
          "class_name": "GlorotUniform",
          "config": {
            "seed": null
          },
          "registered_name": null
        },
        "bias_initializer": {
          "module": "keras.initializers",
          "class_name": "Zeros",
          "config": {},
          "registered_name": null
        },
        "kernel_regularizer": null,
        "bias_regularizer": null,
        "activity_regularizer": null,
        "kernel_constraint": null,
        "bias_constraint": null
      },
      "weights": [
        [
          -0.23070742189884186,
          0.12432581931352615,
          0.21494248509407043,
          -0.19724707305431366,
          -0.17934004962444305,
          -0.18208152055740356,
          0.15322287380695343,
          0.05654780566692352,
          0.12260516732931137,
          -0.1641559600830078,
          -0.18824492394924164,
          -0.05950839817523956,
          0.22009773552417755,
          0.06039338931441307,
          -0.07043623179197311,
          0.20170238614082336,
          0.2165938764810562,
          0.046577706933021545,
          -0.20499038696289062,
          -0.17192129790782928,
          0.10780411958694458,
          0.13847839832305908,
          0.19598403573036194,
          0.1302141398191452,
          0.078193798661232,
          -0.11653953790664673,
          -0.10254507511854172,
          0.12535832822322845,
          -0.0726180225610733,
          -0.13556760549545288,
          0.04084371402859688,
          -0.1338331252336502,
          -0.14967171847820282,
          0.11238763481378555,
          -0.21707017719745636,
          -0.07955603301525116,
          -0.1716727912425995,
          -0.0034009963274002075,
          -0.2178688496351242,
          0.11167140305042267,
          0.15433155000209808,
          0.12059424072504044,
          -0.14071591198444366,
          -0.030375124886631966,
          -0.08267103135585785,
          0.20053675770759583,
          -0.10972657799720764,
          -0.11623306572437286,
          0.039546843618154526,
          -0.024652738124132156,
          0.1580660194158554,
          0.17370158433914185,
          -0.13806788623332977,
          -0.12085964530706406,
          -0.18404731154441833,
          0.013381083495914936,
          0.10197072476148605,
          0.1283784955739975,
          0.08534134179353714,
          0.0537378266453743,
          -0.030663039535284042,
          -0.21375218033790588,
          0.11433225125074387,
          -0.10483628511428833,
          -0.03383062407374382,
          -0.03971874341368675,
          -0.054830290377140045,
          -0.1906922459602356,
          0.19469723105430603,
          0.22222088277339935,
          -0.047306545078754425,
          0.13959582149982452,
          0.22423776984214783,
          0.059533484280109406,
          -0.1875523179769516,
          -0.1898801177740097,
          0.15441566705703735,
          -0.03746911883354187,
          0.11937647312879562,
          0.05056595429778099,
          -0.026728834956884384,
          -0.23418964445590973,
          0.07990420609712601,
          -0.14804118871688843,
          -0.17298108339309692,
          0.03545951843261719,
          0.0691070482134819,
          -0.21704095602035522,
          -0.13850347697734833,
          -0.16139119863510132,
          -0.024151034653186798,
          -0.08390917629003525,
          -0.13570599257946014,
          -0.060048915445804596,
          -0.16149014234542847,
          -0.1754448115825653,
          -0.10001129657030106,
          -0.025513505563139915,
          0.15733762085437775,
          -0.19840456545352936,
          0.20659902691841125,
          -0.008016064763069153,
          0.1855526715517044,
          -0.11289898306131363,
          -0.0313568040728569,
          0.2278250753879547,
          -0.02962443046271801,
          -0.09522733092308044,
          -0.1644410640001297,
          -0.15241259336471558,
          0.09540702402591705,
          0.014094523154199123,
          0.14284692704677582,
          0.10818392038345337,
          0.006382351741194725,
          0.09765338152647018,
          -0.037840671837329865,
          0.21084748208522797,
          0.23704421520233154,
          -0.08783149719238281,
          -0.05042268708348274,
          0.19360055029392242,
          0.033345259726047516,
          -0.1656743586063385,
          -0.18808062374591827,
          0.16342595219612122,
          -0.13282255828380585,
          0.001406793249770999,
          -0.014383898116648197,
          -0.15143582224845886,
          0.018299514427781105,
          0.0846986323595047,
          -0.0068459901958703995,
          -0.1601831465959549,
          0.02512957714498043,
          -0.019176051020622253,
          0.16866512596607208,
          -0.14005903899669647,
          0.1775580793619156,
          -0.06759612262248993,
          0.20128774642944336,
          -0.07141291350126266,
          -0.028650514781475067,
          0.04611939936876297,
          -0.010321049951016903,
          -0.0657271221280098,
          0.20671387016773224,
          -0.04566016420722008,
          0.02285873517394066,
          0.18878678977489471,
          -0.14054644107818604,
          -0.039654724299907684,
          0.16628018021583557,
          -0.18053743243217468,
          -0.079947330057621,
          0.14817681908607483,
          0.17894844710826874,
          -0.10767178237438202,
          0.10621926188468933,
          -0.16612352430820465,
          0.1549127995967865,
          -0.02663857862353325,
          0.1448509246110916,
          0.10952199995517731,
          -0.18095780909061432,
          -0.17870403826236725,
          -0.20288820564746857,
          -0.2187696248292923,
          0.15923427045345306,
          0.01620713621377945,
          -0.08272283524274826,
          0.07885373383760452,
          0.15292973816394806,
          0.07581306993961334,
          -0.16722431778907776,
          -0.2068229466676712,
          0.09187055379152298,
          -0.22321200370788574,
          0.18459849059581757,
          0.029809635132551193,
          0.12589755654335022,
          0.21986179053783417,
          -0.14874055981636047,
          -0.05195431783795357,
          -0.012954146601259708,
          0.17994481325149536,
          0.0996832624077797,
          -0.22278764843940735,
          -0.18756112456321716,
          -0.1839981973171234,
          0.2151327133178711,
          0.2130592316389084,
          -0.23158204555511475,
          0.13547082245349884,
          0.1738702952861786,
          0.007978028617799282,
          -0.20151358842849731,
          -0.029440386220812798,
          0.1859174221754074,
          -0.1022423654794693,
          -0.012744240462779999,
          0.15602482855319977,
          0.21071097254753113,
          -0.1430521309375763,
          -0.02192213013768196,
          -0.2293138951063156,
          -0.2140267938375473,
          0.14575204253196716,
          -0.13905945420265198,
          -0.14443501830101013,
          -0.00927136279642582,
          0.1493173986673355,
          -0.03854239359498024,
          0.19940249621868134,
          -0.011538532562553883,
          0.14740782976150513,
          -0.06551502645015717,
          -0.1571652591228485,
          0.21147507429122925,
          0.07998301088809967,
          0.1027202308177948,
          -0.054447565227746964,
          0.0028855770360678434,
          -0.09145157039165497,
          -0.056217871606349945,
          0.05885731428861618,
          -0.14722369611263275,
          -0.19544072449207306,
          -0.11687909811735153,
          0.20221121609210968,
          0.16284789144992828,
          -0.12011247128248215,
          0.16881409287452698,
          -0.17623567581176758,
          0.0478096567094326,
          0.02747141569852829,
          -0.080387182533741,
          0.0661267340183258,
          -0.10441062599420547,
          -0.14290422201156616,
          -0.06457942724227905,
          0.16338583827018738,
          -0.15706767141819,
          0.1904209852218628,
          0.19405022263526917,
          0.03578322380781174,
          -0.09163913130760193,
          0.046440303325653076,
          0.18025511503219604,
          -0.015320970676839352,
          0.042095739394426346,
          -0.16141653060913086,
          0.05094438046216965,
          0.03266764432191849,
          -0.10955090820789337,
          -0.07324884086847305,
          0.18365223705768585,
          -0.05447186529636383,
          0.08932903409004211,
          0.11267386376857758,
          0.06921785324811935,
          -0.0859212651848793,
          -0.12560977041721344,
          0.20377062261104584,
          -0.03879968076944351,
          0.14942240715026855,
          -0.1836465299129486,
          0.16055260598659515,
          -0.18935680389404297,
          -0.10989627242088318,
          0.03950009122490883,
          0.10829060524702072,
          -0.02186698466539383,
          -0.043275829404592514,
          0.11935680359601974,
          -0.10281697660684586,
          -0.15416209399700165,
          0.1642850786447525,
          -0.09767194837331772,
          -0.09652754664421082,
          -0.11314200609922409,
          0.0130781764164567,
          -0.2129865288734436,
          -0.1741686314344406,
          0.08799666911363602,
          -0.07347861677408218,
          0.06945571303367615,
          -0.010135565884411335,
          0.04118461161851883,
          0.006298829335719347,
          0.0687834694981575,
          -0.1335311084985733,
          -0.2109411358833313,
          -0.1696799099445343,
          0.1091296374797821,
          -0.16029024124145508,
          0.03294186294078827,
          -0.21950925886631012,
          -0.08920351415872574,
          0.09150675684213638,
          -0.013660803437232971,
          0.062081724405288696,
          0.1554521918296814,
          -0.030661674216389656,
          -0.13901974260807037,
          -0.1489950567483902,
          -0.14041975140571594,
          0.17365282773971558,
          0.11213215440511703,
          0.19978836178779602,
          0.0736275240778923,
          0.030358195304870605,
          0.0885390117764473,
          0.12368301302194595,
          -0.23206624388694763,
          -0.06487387418746948,
          0.032867494970560074,
          -0.02454441972076893,
          -0.1747700423002243,
          0.05195260047912598,
          -0.008924482390284538,
          -0.16420327126979828,
          0.017251847311854362,
          0.07059396803379059,
          -0.008089457638561726,
          -0.13552385568618774,
          -0.1624821275472641,
          0.04638145864009857,
          0.20396539568901062,
          -0.014804237522184849,
          -0.1168036237359047,
          0.12256760895252228,
          0.09756915271282196,
          -0.0701659619808197,
          0.14503878355026245,
          -0.1037244200706482,
          -0.1517164260149002,
          0.05240271985530853,
          -0.14159639179706573,
          0.07621465623378754,
          -0.049827322363853455,
          -0.06200467050075531,
          0.20895707607269287,
          -0.020368486642837524,
          -0.2012162208557129,
          0.06448908895254135,
          0.07912789285182953,
          -0.09261123836040497,
          0.21298371255397797,
          -0.03990168869495392,
          -0.08782576769590378,
          0.10855735838413239,
          0.10327354073524475,
          0.10296181589365005,
          -0.03372427448630333,
          -0.15419961512088776,
          -0.0249551460146904,
          0.20325645804405212,
          -0.1684848815202713,
          -0.11984719336032867,
          0.12395933270454407,
          -0.16668163239955902,
          -0.12884435057640076,
          -0.22316192090511322,
          0.046879447996616364,
          0.029171505942940712,
          0.02879427745938301,
          0.16890472173690796,
          0.1836000233888626,
          -0.05282357707619667,
          -0.19351573288440704,
          0.17277531325817108,
          -0.05497559905052185,
          -0.00858283881098032,
          -0.08480013906955719,
          0.0730007216334343,
          0.010784843005239964,
          -0.06396912038326263,
          0.10763812065124512,
          0.14814428985118866,
          -0.03056211583316326,
          0.07407115399837494,
          0.011591835878789425,
          0.14587435126304626,
          -0.11921555548906326,
          0.1350247710943222,
          0.20156016945838928,
          0.16466468572616577,
          0.12673690915107727,
          0.19963765144348145,
          0.1887924075126648,
          -0.20513032376766205,
          -0.002542403293773532,
          0.13554514944553375,
          -0.05603180080652237,
          0.13364288210868835,
          -0.1915283501148224,
          0.1870419830083847,
          0.07450175285339355,
          0.1280357390642166,
          -0.2162615954875946,
          0.03459528461098671,
          0.06654097139835358,
          -0.17213229835033417,
          0.1042177677154541,
          -0.16809619963169098,
          0.022407166659832,
          0.042166631668806076,
          0.00639347592368722,
          0.14160270988941193,
          0.10725300014019012,
          0.17240527272224426,
          -0.13575318455696106,
          0.03262847661972046,
          -0.18212172389030457,
          0.01706697791814804,
          0.12570393085479736,
          0.1494797170162201,
          0.0377090647816658,
          -0.19605639576911926,
          0.1635105460882187,
          -0.13907647132873535,
          -0.1417594999074936,
          -0.14943179488182068,
          -0.1870107203722,
          -0.08879142254590988,
          -0.22015781700611115,
          -0.0778312161564827,
          -0.20316551625728607,
          -0.0544317364692688,
          -0.12672756612300873,
          -0.16650773584842682,
          -0.1265297830104828,
          0.042175598442554474,
          -0.11626557260751724,
          -0.10275344550609589,
          0.07692372053861618,
          0.18811239302158356,
          0.034190595149993896,
          0.12808319926261902,
          -0.06278939545154572,
          -0.12259802967309952,
          -0.010092882439494133,
          0.17959275841712952,
          -0.14496080577373505,
          0.14061661064624786,
          -0.02542741596698761,
          -0.09220479428768158,
          0.15765206515789032,
          -0.02003007009625435,
          0.10219009220600128,
          -0.04034481942653656,
          -0.032748330384492874,
          -0.060676924884319305,
          0.07161234319210052,
          -0.0027279555797576904,
          0.017926810309290886,
          0.18981404602527618,
          0.14873473346233368,
          -0.18546807765960693,
          0.16497278213500977,
          0.14613616466522217,
          0.0685519427061081,
          -0.13566595315933228,
          0.04125843942165375,
          0.15045244991779327,
          0.06749971210956573,
          -0.04284628480672836,
          -0.04521917551755905,
          -0.1918097585439682,
          0.0448329783976078,
          0.1988796889781952,
          0.1159210279583931,
          0.03194544091820717,
          0.005939499009400606,
          -0.031808335334062576,
          0.10102341324090958,
          0.1394721269607544,
          0.14369173347949982,
          -0.041485123336315155,
          0.08269136399030685,
          -0.14709952473640442,
          0.17817309498786926,
          -0.1756928414106369,
          0.12028884142637253,
          -0.1862647533416748,
          -0.04123147204518318,
          0.14175786077976227,
          0.06854886561632156,
          0.0619015246629715,
          0.16328246891498566,
          -0.18015286326408386,
          0.0006058528088033199,
          0.07236573100090027,
          -0.1613892763853073,
          0.10790329426527023,
          -0.0455203652381897,
          -0.11847230792045593,
          0.14723974466323853,
          -0.13339635729789734,
          -0.06859136372804642,
          0.07624513655900955,
          -0.06745052337646484,
          0.15099133551120758,
          0.11766459792852402,
          0.013362463563680649,
          -0.12961477041244507,
          -0.1965668797492981,
          -0.0881890133023262,
          0.015061191283166409,
          -0.018719330430030823,
          0.09738361835479736,
          0.18803304433822632,
          -0.07421224564313889,
          -0.22683236002922058,
          -0.008860482834279537,
          0.19599789381027222,
          0.16806720197200775,
          0.13804292678833008,
          -0.18779215216636658,
          -0.03650166094303131,
          0.13728447258472443,
          0.13681775331497192,
          -0.15311051905155182,
          -0.18728448450565338,
          -0.18432645499706268,
          0.08216986805200577,
          -0.16430392861366272,
          -0.18619298934936523,
          0.03480564057826996,
          0.15947705507278442,
          0.15980255603790283,
          -0.0708315446972847,
          0.004079510923475027,
          0.22298449277877808,
          -0.11142460256814957,
          0.07095527648925781,
          0.1928001195192337,
          0.22333332896232605,
          0.16416838765144348,
          0.14802828431129456,
          0.11733150482177734,
          -0.02821943163871765,
          -0.17168666422367096,
          -0.11827393621206284,
          -0.15704014897346497,
          -0.05650528520345688,
          0.018272114917635918,
          -0.1102404072880745,
          0.0012462306767702103,
          -0.0061357165686786175,
          -0.10600235313177109,
          0.11229941993951797,
          0.13752146065235138,
          0.14955466985702515,
          0.049174536019563675,
          0.08215777575969696,
          -0.17080411314964294,
          0.01839420013129711,
          0.05919821560382843,
          0.03510197252035141,
          -0.08796492964029312,
          0.06871554255485535,
          0.18006575107574463,
          0.20782789587974548,
          -0.1607930213212967,
          0.20989836752414703,
          0.16790418326854706,
          0.0979079082608223,
          0.00022421017638407648,
          0.10369686037302017,
          -0.12525291740894318,
          -0.12167453020811081,
          0.006386896595358849,
          -0.18856222927570343,
          -0.03472385182976723
        ],
        [
          -0.0024672565050423145,
          -0.009278533980250359,
          -0.06237420812249184,
          -0.005146156530827284,
          -0.0010442337952554226,
          -0.00641215406358242,
          -0.0026956754736602306,
          0.0,
          5.663202318828553e-05,
          0.008856436237692833,
          0.006349738221615553,
          -0.008472917601466179,
          -0.005869759246706963,
          -0.003155040554702282,
          -0.003767273621633649,
          0.004212656524032354,
          0.01124200876802206,
          0.007994291372597218,
          0.0026962975971400738,
          5.770716234110296e-05,
          0.0018279568757861853,
          -0.005327966995537281,
          -0.008741998113691807,
          0.009260955266654491,
          -0.010296574793756008,
          0.000676957773976028,
          -0.0018774099880829453,
          -0.010871400125324726,
          -0.011800393462181091,
          -0.004628651775419712,
          -0.009186369366943836,
          0.004405641928315163
        ]
      ],
      "weight_shapes": [
        [
          3,
          6,
          32
        ],
        [
          32
        ]
      ]
    },
    {
      "index": 8,
      "name": "batch_normalization",
      "type": "BatchNormalization",
      "config": {
        "name": "batch_normalization",
        "trainable": true,
        "dtype": {
          "module": "keras",
          "class_name": "DTypePolicy",
          "config": {
            "name": "float32"
          },
          "registered_name": null
        },
        "axis": -1,
        "momentum": 0.99,
        "epsilon": 0.001,
        "center": true,
        "scale": true,
        "beta_initializer": {
          "module": "keras.initializers",
          "class_name": "Zeros",
          "config": {},
          "registered_name": null
        },
        "gamma_initializer": {
          "module": "keras.initializers",
          "class_name": "Ones",
          "config": {},
          "registered_name": null
        },
        "moving_mean_initializer": {
          "module": "keras.initializers",
          "class_name": "Zeros",
          "config": {},
          "registered_name": null
        },
        "moving_variance_initializer": {
          "module": "keras.initializers",
          "class_name": "Ones",
          "config": {},
          "registered_name": null
        },
        "beta_regularizer": null,
        "gamma_regularizer": null,
        "beta_constraint": null,
        "gamma_constraint": null,
        "synchronized": false
      },
      "weights": [
        [
          0.9935334324836731,
          1.0000686645507812,
          0.9905989170074463,
          0.9825617671012878,
          0.9951081275939941,
          0.9818696975708008,
          0.9910579919815063,
          0.9927547574043274,
          0.9890806078910828,
          0.9872771501541138,
          1.0,
          0.9907641410827637,
          0.9979622960090637,
          0.9996518492698669,
          0.9851240515708923,
          1.0,
          0.9981154203414917,
          0.9917875528335571,
          0.9940018653869629,
          0.9895548820495605,
          0.9961442947387695,
          0.9834520816802979,
          0.9668256044387817,
          0.9951485395431519,
          1.0011159181594849,
          0.9948322772979736,
          0.9969552755355835,
          0.9903616309165955,
          0.9949895739555359,
          0.9800769686698914,
          0.9846768379211426,
          0.9928298592567444
        ],
        [
          -0.009855364449322224,
          0.011706811375916004,
          -0.0044713011011481285,
          -0.003450759220868349,
          -0.005342962685972452,
          -0.0006732478505000472,
          -0.005839092656970024,
          0.003767941612750292,
          0.00229498278349638,
          -0.013929706066846848,
          0.013322371058166027,
          0.014824566431343555,
          -0.013057672418653965,
          -0.010771543718874454,
          -0.005591194611042738,
          0.014137128368020058,
          0.012576470151543617,
          -0.019561903551220894,
          0.027170615270733833,
          -0.018232455477118492,
          -0.006037426181137562,
          -0.01405699085444212,
          -0.030917586758732796,
          -0.015790905803442,
          0.004876547493040562,
          0.0033483048900961876,
          0.01469485554844141,
          0.0003466267080511898,
          -0.03244304656982422,
          -0.00797465443611145,
          -0.022076038643717766,
          -0.019457532092928886
        ],
        [
          0.00012807994789909571,
          0.15121009945869446,
          0.0008434717892669141,
          0.1700473427772522,
          0.006423231214284897,
          0.15920484066009521,
          0.21952013671398163,
          0.16824039816856384,
          0.2290009707212448,
          0.016427509486675262,
          0.0,
          0.013156608678400517,
          0.0006914957193657756,
          0.2316051721572876,
          0.2521185278892517,
          0.0,
          0.00014751582057215273,
          1.7733449567458592e-05,
          0.0039894552901387215,
          0.0007920702337287366,
          0.0011685133213177323,
          9.77736635832116e-06,
          0.4873538613319397,
          2.8620639191956343e-10,
          0.0016630032332614064,
          0.005661557894200087,
          0.1361442357301712,
          0.003922701347619295,
          0.00021251713042147458,
          0.1827613115310669,
          8.67996786837466e-05,
          0.04312717542052269
        ],
        [
          0.0018389902543276548,
          0.00717331375926733,
          0.001871409360319376,
          0.00813316460698843,
          0.002195646520704031,
          0.013197935186326504,
          0.008383650332689285,
          0.011201758868992329,
          0.022698134183883667,
          0.002225566189736128,
          0.0018334538908675313,
          0.002947285072878003,
          0.0018696041079238057,
          0.010551533661782742,
          0.015480082482099533,
          0.0018334538908675313,
          0.0018381912959739566,
          0.0018336522625759244,
          0.0020032001193612814,
          0.0018753604963421822,
          0.001881038537248969,
          0.0018336630892008543,
          0.0583820715546608,
          0.0018334538908675313,
          0.0019051242852583528,
          0.002790824044495821,
          0.006282206624746323,
          0.0020920727401971817,
          0.0018424816662445664,
          0.010406018234789371,
          0.0018367142183706164,
          0.002723876852542162
        ]
      ],
      "weight_shapes": [
        [
          32
        ],
        [
          32
        ],
        [
          32
        ],
        [
          32
        ]
      ]
    },
    {
      "index": 9,
      "name": "batch_normalization_1",
      "type": "BatchNormalization",
      "config": {
        "name": "batch_normalization_1",
        "trainable": true,
        "dtype": {
          "module": "keras",
          "class_name": "DTypePolicy",
          "config": {
            "name": "float32"
          },
          "registered_name": null
        },
        "axis": -1,
        "momentum": 0.99,
        "epsilon": 0.001,
        "center": true,
        "scale": true,
        "beta_initializer": {
          "module": "keras.initializers",
          "class_name": "Zeros",
          "config": {},
          "registered_name": null
        },
        "gamma_initializer": {
          "module": "keras.initializers",
          "class_name": "Ones",
          "config": {},
          "registered_name": null
        },
        "moving_mean_initializer": {
          "module": "keras.initializers",
          "class_name": "Zeros",
          "config": {},
          "registered_name": null
        },
        "moving_variance_initializer": {
          "module": "keras.initializers",
          "class_name": "Ones",
          "config": {},
          "registered_name": null
        },
        "beta_regularizer": null,
        "gamma_regularizer": null,
        "beta_constraint": null,
        "gamma_constraint": null,
        "synchronized": false
      },
      "weights": [
        [
          0.987433135509491,
          1.0,
          0.992881715297699,
          0.9965497851371765,
          0.9897986054420471,
          0.9920017719268799,
          0.9865572452545166,
          0.9959753155708313,
          0.9904075860977173,
          0.9899430274963379,
          0.9891034364700317,
          0.9900655746459961,
          0.9898750185966492,
          1.0090423822402954,
          0.9913720488548279,
          0.9931159019470215,
          0.9889331459999084,
          1.0082494020462036,
          0.9843292832374573,
          0.9941466450691223,
          1.0020921230316162,
          1.0052496194839478,
          0.9927225708961487,
          0.9691980481147766,
          0.982347846031189,
          1.0002877712249756,
          0.9864944219589233,
          0.9866140484809875,
          0.9899187684059143,
          0.9855165481567383,
          1.0063118934631348,
          0.9991806745529175
        ],
        [
          0.0156630277633667,
          0.022584322839975357,
          0.014010410755872726,
          0.0015835810918360949,
          -0.0021953319665044546,
          0.008132975548505783,
          0.011107580736279488,
          -0.003136217128485441,
          -0.019467825070023537,
          -0.008481604047119617,
          -0.008280688896775246,
          0.016321124508976936,
          0.01652645878493786,
          0.030826207250356674,
          -0.0014952551573514938,
          0.011407512240111828,
          -0.006767604500055313,
          -0.022694628685712814,
          0.004397043026983738,
          -0.005104959011077881,
          -0.019690828397870064,
          -0.006389084737747908,
          -0.016507834196090698,
          0.008101409301161766,
          0.009423639625310898,
          0.01685352623462677,
          -0.003998319152742624,
          -0.0057451119646430016,
          -0.0025798596907407045,
          -0.011951840482652187,
          0.003592496272176504,
          -0.03683626279234886
        ],
        [
          0.1757737249135971,
          0.0,
          0.02781764604151249,
          0.005039099603891373,
          2.6448506105225533e-05,
          0.24805369973182678,
          0.0035842854995280504,
          0.19420823454856873,
          0.00021120012388564646,
          0.1968543380498886,
          0.0010097491322085261,
          0.16726261377334595,
          0.2014962136745453,
          0.0012798901880159974,
          4.6096778532955796e-05,
          0.18629728257656097,
          0.10935524851083755,
          0.25699156522750854,
          0.009918688796460629,
          0.00882371049374342,
          0.09286253154277802,
          0.27307185530662537,
          0.0006389354239217937,
          0.24649371206760406,
          0.05617613345384598,
          8.347562106791884e-05,
          0.0022532439325004816,
          0.06428151577711105,
          0.4128153622150421,
          0.10223788768053055,
          0.5105341672897339,
          0.2644534707069397
        ],
        [
          0.00881370808929205,
          0.0018334538908675313,
          0.007367592770606279,
          0.0021227719262242317,
          0.0018336366629227996,
          0.018299169838428497,
          0.0019285293528810143,
          0.015903448686003685,
          0.0018392250640317798,
          0.015353654511272907,
          0.0018593808636069298,
          0.010989541187882423,
          0.016233066096901894,
          0.001904904842376709,
          0.001835151924751699,
          0.015097115188837051,
          0.005149640142917633,
          0.019830433651804924,
          0.0020851893350481987,
          0.002740631578490138,
          0.0050787306390702724,
          0.01866324059665203,
          0.0018542082980275154,
          0.01159210130572319,
          0.004603158216923475,
          0.0018352520419284701,
          0.0019201107788830996,
          0.004044059198349714,
          0.03444008156657219,
          0.005422411952167749,
          0.05867540091276169,
          0.02881486713886261
        ]
      ],
      "weight_shapes": [
        [
          32
        ],
        [
          32
        ],
        [
          32
        ],
        [
          32
        ]
      ]
    },
    {
      "index": 10,
      "name": "batch_normalization_2",
      "type": "BatchNormalization",
      "config": {
        "name": "batch_normalization_2",
        "trainable": true,
        "dtype": {
          "module": "keras",
          "class_name": "DTypePolicy",
          "config": {
            "name": "float32"
          },
          "registered_name": null
        },
        "axis": -1,
        "momentum": 0.99,
        "epsilon": 0.001,
        "center": true,
        "scale": true,
        "beta_initializer": {
          "module": "keras.initializers",
          "class_name": "Zeros",
          "config": {},
          "registered_name": null
        },
        "gamma_initializer": {
          "module": "keras.initializers",
          "class_name": "Ones",
          "config": {},
          "registered_name": null
        },
        "moving_mean_initializer": {
          "module": "keras.initializers",
          "class_name": "Zeros",
          "config": {},
          "registered_name": null
        },
        "moving_variance_initializer": {
          "module": "keras.initializers",
          "class_name": "Ones",
          "config": {},
          "registered_name": null
        },
        "beta_regularizer": null,
        "gamma_regularizer": null,
        "beta_constraint": null,
        "gamma_constraint": null,
        "synchronized": false
      },
      "weights": [
        [
          0.9781835079193115,
          0.9855402708053589,
          0.9922794699668884,
          0.9922078251838684,
          1.0015695095062256,
          0.9933310151100159,
          0.9907739758491516,
          0.9908040761947632,
          0.9881625175476074,
          1.0026283264160156,
          0.9933956265449524,
          1.0173704624176025,
          0.999207079410553,
          0.9801910519599915,
          1.005702257156372,
          0.9964918494224548,
          1.006838321685791,
          0.9933907985687256,
          0.9893679022789001,
          0.9795730710029602,
          0.9939374923706055,
          0.9868490099906921,
          0.9962216019630432,
          0.9903053641319275,
          0.9823789000511169,
          0.9882653951644897,
          0.9855400919914246,
          0.9844801425933838,
          1.0,
          0.9917424917221069,
          0.995699942111969,
          1.0000513792037964
        ],
        [
          0.019242461770772934,
          -0.006026337388902903,
          0.0036843004636466503,
          0.006266183219850063,
          -0.02594219706952572,
          0.00522565795108676,
          0.00960247777402401,
          -0.028605157509446144,
          -0.0065200612880289555,
          0.01200686115771532,
          0.006542982999235392,
          0.020168716087937355,
          0.010077564977109432,
          0.0055567119270563126,
          -0.01097907591611147,
          0.012899025343358517,
          -0.0010174782946705818,
          -0.004416829440742731,
          -0.015423117205500603,
          0.011179618537425995,
          -0.011278466321527958,
          0.0001910129503812641,
          -0.011410385370254517,
          -0.0109376460313797,
          0.00019114765746053308,
          -0.012132449075579643,
          -0.02146376483142376,
          -0.016671547666192055,
          -0.023460697382688522,
          0.021729713305830956,
          -0.014275436289608479,
          0.0020063919946551323
        ],
        [
          0.12147993594408035,
          0.00010172234760830179,
          0.43573588132858276,
          0.07252426445484161,
          0.004803538788110018,
          3.353767897351645e-05,
          0.002035415032878518,
          0.006781270727515221,
          0.2974477708339691,
          1.0246749004849676e-09,
          0.0013940739445388317,
          1.8775908756651916e-05,
          0.00651550991460681,
          0.022612398490309715,
          0.03425096347928047,
          0.11379263550043106,
          0.009946119971573353,
          0.15284200012683868,
          0.13760460913181305,
          0.17138835787773132,
          0.005643799435347319,
          0.0008207994396798313,
          0.025596218183636665,
          2.2661650291411206e-05,
          0.08958493918180466,
          0.00874058622866869,
          0.010844162665307522,
          0.012102828361093998,
          0.0,
          6.30446583826938e-09,
          1.1136920718968213e-08,
          0.009049455635249615
        ],
        [
          0.005658367183059454,
          0.0018366285366937518,
          0.06277517229318619,
          0.003515031421557069,
          0.0020228917710483074,
          0.0018340226961299777,
          0.0018912088125944138,
          0.0024234685115516186,
          0.04147258400917053,
          0.0018334538908675313,
          0.0018834536895155907,
          0.0018339897505939007,
          0.002138982294127345,
          0.004064220003783703,
          0.005861528683453798,
          0.011219659820199013,
          0.0029873985331505537,
          0.012361539527773857,
          0.009508278220891953,
          0.012048149481415749,
          0.0021324511617422104,
          0.001853197580203414,
          0.004594608675688505,
          0.001833758084103465,
          0.004952768795192242,
          0.002555573359131813,
          0.0025738850235939026,
          0.002760394010692835,
          0.0018334538908675313,
          0.0018334538908675313,
          0.0018334538908675313,
          0.002602557884529233
        ]
      ],
      "weight_shapes": [
        [
          32
        ],
        [
          32
        ],
        [
          32
        ],
        [
          32
        ]
      ]
    },
    {
      "index": 11,
      "name": "batch_normalization_3",
      "type": "BatchNormalization",
      "config": {
        "name": "batch_normalization_3",
        "trainable": true,
        "dtype": {
          "module": "keras",
          "class_name": "DTypePolicy",
